8 100
the 0.004918 0.009607 0.010162 0.000149 -0.000168 0.002838 -0.007481 -0.003444 -0.005698 0.009204 0.000205 0.002148 0.009082 -0.004920 0.001018 -0.009030 0.002466 0.009743 -0.006448 -0.008053 -0.005856 0.003754 -0.003828 0.008474 0.002575 0.005460 -0.009971 -0.001003 -0.004904 -0.003049 0.009430 -0.003705 -0.006290 0.005781 -0.009599 -0.002939 -0.008814 0.000367 0.007498 -0.006449 0.005376 0.007169 0.002173 -0.008022 0.005649 -0.005814 -0.003733 -0.004849 0.008928 -0.009025 -0.007973 -0.006260 0.000364 0.004196 0.007451 0.002642 -0.002818 0.007928 -0.003101 0.007352 0.005919 0.000065 -0.007376 -0.007821 0.005492 0.007911 0.000597 0.009047 -0.004579 0.003838 -0.000276 0.005588 0.000460 0.001877 -0.005394 -0.001579 -0.001588 -0.009193 0.003440 0.007102 -0.007720 0.005630 -0.005793 -0.008560 -0.007089 0.000982 0.004134 -0.006737 -0.004712 -0.003145 0.000220 -0.000615 -0.001566 0.008629 0.005829 0.006728 0.003409 0.007874 0.005992 -0.008195 
over 0.006043 0.002531 0.004758 -0.003082 0.000593 -0.004458 0.002421 -0.009132 0.000241 -0.002844 -0.006755 0.007774 -0.008913 0.002374 -0.001997 0.005246 -0.000976 -0.008832 -0.005438 -0.003386 0.000515 -0.007569 0.005585 0.004136 0.001064 -0.006555 -0.007584 -0.006399 -0.008687 -0.000477 -0.006201 0.007587 -0.009311 -0.003912 0.007021 -0.000061 0.000024 -0.001600 0.001823 0.008944 0.001237 -0.004293 -0.002619 0.004797 -0.008725 -0.007797 -0.000083 0.004553 -0.004792 -0.009787 0.006889 -0.002567 0.003315 -0.005836 0.003232 -0.003267 -0.007660 -0.003296 0.005712 0.009287 -0.009430 0.006124 0.007601 0.008996 -0.001835 0.000686 0.000547 0.000704 0.007838 -0.000316 0.002146 0.008482 -0.002265 0.000727 0.001341 -0.004857 -0.005480 -0.005310 -0.002133 0.006951 0.007948 0.007117 0.005815 -0.004576 -0.004419 0.000756 0.001396 -0.006581 -0.009992 -0.006679 -0.002631 -0.000080 -0.004361 -0.001196 -0.000391 0.001794 0.006269 -0.001694 -0.000979 0.006270 
quick -0.002558 0.001148 0.001582 -0.007652 0.000680 0.001126 -0.000703 0.004022 0.004730 0.006292 0.008251 0.003408 -0.005636 0.003316 -0.001478 -0.004962 -0.005499 0.003244 -0.006439 -0.002546 0.005642 0.007855 -0.001663 0.006910 0.009721 0.003886 0.007204 -0.001077 0.003611 -0.003118 0.007817 -0.007541 -0.004450 -0.000366 -0.005741 -0.007435 0.001246 0.003961 -0.009374 0.003367 0.000606 -0.009040 -0.009609 -0.007492 0.002089 -0.009569 -0.002411 0.001286 -0.005264 -0.008471 -0.008816 0.006235 -0.009188 0.005086 0.006123 0.008893 0.004189 0.005882 0.003630 -0.006961 -0.001298 -0.003870 0.009773 0.009273 0.003494 -0.000031 -0.005209 0.003547 0.003596 0.006049 -0.004249 0.000468 0.000357 -0.002505 -0.003015 -0.005486 -0.003917 0.000527 -0.005859 0.001272 -0.007324 0.002010 -0.003436 -0.009060 -0.003923 -0.000829 -0.003752 -0.007697 0.006411 0.006113 0.005372 -0.004393 0.008708 0.002148 -0.007276 -0.001629 -0.006972 0.001426 -0.006739 0.001233 
lazy -0.003928 0.001744 0.004380 0.000410 -0.006374 -0.001145 -0.002489 0.005567 -0.000791 0.009519 0.009437 -0.008950 0.006441 0.002603 0.004214 0.001610 -0.009315 -0.005048 -0.003653 0.001113 0.001708 0.001778 0.009326 -0.009380 -0.007637 -0.001881 0.003773 -0.000119 0.003212 -0.009954 -0.003179 0.000007 0.001162 0.005516 -0.004066 -0.006039 -0.008374 0.008643 -0.005145 0.004505 -0.003554 -0.008563 -0.000636 -0.001902 -0.000308 -0.000991 -0.003924 -0.002023 -0.008845 -0.002827 0.007693 -0.007824 -0.003295 -0.002663 -0.000837 0.000912 -0.003970 -0.002939 -0.009750 0.001916 -0.007420 0.001535 -0.002954 0.002647 0.006427 -0.006894 0.005035 -0.001854 0.002499 -0.004977 0.003904 0.000796 -0.007238 0.002007 -0.007894 0.001696 0.002788 -0.006287 -0.000738 -0.008194 0.002783 0.008185 -0.000001 -0.009259 0.004260 0.000530 0.000136 -0.001559 -0.001227 0.004857 0.004385 0.000168 -0.001454 0.002938 -0.007887 0.002969 -0.001484 0.007074 -0.009786 0.007213 
fox 0.004293 -0.005530 -0.002987 0.002613 0.002588 0.007559 -0.006150 -0.004749 -0.006909 0.009497 0.008836 0.004623 0.007066 0.007996 0.007112 -0.009293 -0.007686 -0.008285 0.006216 -0.000834 0.004191 -0.003988 0.004759 0.005251 0.009359 0.005464 -0.003642 -0.002851 0.001499 -0.000363 0.007570 -0.003198 -0.003575 -0.005899 0.007350 0.005095 -0.009675 0.003901 -0.006572 0.009209 -0.000034 0.003120 0.001612 -0.003444 -0.004008 0.004810 0.009494 -0.006977 -0.000720 -0.000468 -0.002094 0.003992 0.001439 -0.006277 -0.008814 -0.001469 0.004386 0.008240 0.002699 0.009940 0.006562 -0.004623 0.002605 -0.003696 -0.009567 0.002639 -0.005243 -0.004072 0.004161 0.003980 -0.003147 0.006767 -0.003565 -0.001289 0.000870 -0.001387 -0.005961 0.000217 -0.003167 0.005180 -0.001176 -0.001184 -0.000450 -0.000305 -0.001301 -0.002580 -0.006548 0.004152 0.009185 0.000764 0.002979 -0.003733 -0.000828 0.008025 0.000655 0.000303 -0.006859 0.004484 -0.008518 0.004329 
jumps 0.006711 -0.002585 0.005238 0.005578 0.009564 -0.008734 -0.004910 0.008177 0.003342 -0.006615 -0.005412 0.007568 0.003367 -0.007297 -0.006726 0.004096 0.001691 -0.002117 -0.003078 -0.005971 -0.002430 0.008025 0.001650 0.004781 -0.005136 -0.001438 -0.002900 -0.008407 -0.003683 -0.002900 -0.003087 -0.007081 0.000003 0.008559 0.001951 0.003584 -0.004487 0.003131 -0.009766 -0.001652 0.008444 -0.004751 0.002582 -0.000829 0.001116 -0.005482 -0.002734 0.000380 -0.000676 0.001806 -0.003904 -0.002612 -0.004689 -0.002082 -0.007164 -0.000313 0.001460 0.006825 0.002013 0.005252 0.006691 -0.006413 0.007728 0.008825 -0.008188 -0.005526 -0.003529 -0.008137 0.007643 -0.009597 -0.009117 0.006503 -0.004544 0.008823 0.008936 -0.005051 -0.009062 0.005699 0.000189 0.003151 -0.005900 0.003032 0.008287 -0.004206 0.009749 -0.004370 0.006193 0.007031 -0.000712 0.008433 0.006590 -0.009435 0.002329 -0.005933 -0.001379 0.007281 0.001523 -0.000873 0.007479 0.008503 
dog 0.001891 -0.001399 0.001167 0.005104 0.004150 -0.007199 0.006302 -0.000222 -0.003084 0.007628 -0.009449 0.001537 0.007553 0.000052 0.007102 0.002777 0.000431 -0.009937 0.006265 0.008753 -0.002610 -0.003142 0.002661 0.007976 -0.001770 0.002346 0.001617 -0.007095 0.005975 0.002895 -0.000519 0.000532 -0.000544 -0.003771 -0.002424 0.006330 0.007148 0.002850 -0.009044 0.002349 0.007330 0.001721 0.003752 0.001710 0.007051 0.004151 0.007812 0.007794 -0.000121 -0.006248 0.004872 -0.004684 -0.007222 0.006151 -0.003043 -0.005121 -0.002820 0.004013 0.005367 0.000587 0.002272 -0.004543 0.002938 -0.002748 0.004057 0.009200 -0.003217 0.002466 0.005808 -0.004955 0.003601 0.007150 0.001819 -0.007083 -0.007624 0.004144 -0.000150 0.007983 0.001964 0.008484 0.007482 0.008991 0.007261 -0.004211 0.004510 -0.007586 -0.004745 0.006875 0.003971 -0.007088 0.002215 0.009409 0.005818 0.002484 0.005219 0.000819 -0.002745 -0.007138 0.005229 -0.003088 
brown -0.001668 0.000644 -0.002654 -0.004924 0.000229 0.006494 0.003388 0.002326 -0.002581 0.008684 -0.007425 0.007267 -0.003008 -0.006566 0.000849 -0.008672 -0.006624 0.000883 -0.003406 -0.002193 0.005342 0.008355 0.000052 -0.007354 0.004983 -0.005632 0.007141 -0.009953 0.003996 -0.001650 -0.006292 0.007323 0.006211 -0.003923 -0.001125 0.007681 0.000296 0.002682 -0.009620 -0.001537 -0.002870 0.007205 0.005945 0.007656 -0.009262 -0.002777 -0.005719 -0.000519 0.007597 0.008922 0.005197 -0.005556 0.008116 0.009647 -0.008904 0.004926 -0.009819 -0.002808 -0.000713 0.003791 -0.002463 0.000807 0.001046 -0.002218 0.000147 -0.001774 0.001793 0.001313 -0.001249 0.005803 -0.004173 0.009637 -0.004121 -0.006664 -0.008588 0.009254 0.003729 0.008842 -0.009355 0.005360 -0.009825 0.005139 -0.005659 0.002941 -0.004485 0.002986 0.002522 -0.003972 0.005936 -0.005617 0.007913 -0.000374 0.009111 -0.001192 -0.007062 0.009519 -0.008522 -0.008649 -0.004091 0.006012 
