8 100
lazy -0.002787 -0.001928 -0.000376 0.002044 -0.006306 0.007243 0.005886 0.008975 0.005953 -0.001776 0.008366 0.008704 -0.007454 -0.003636 0.009614 0.001741 0.007336 -0.004922 0.000819 0.008683 0.002207 0.009307 0.001150 0.000335 0.005091 -0.006290 -0.001554 0.008435 0.000308 0.003262 -0.004333 -0.004805 -0.000860 0.004265 -0.007417 -0.007744 -0.001363 -0.002792 0.002164 0.004713 0.003817 -0.004995 0.005670 -0.002044 0.001690 0.002263 0.006151 0.001375 -0.007161 0.001151 -0.006597 -0.003051 -0.003343 0.006450 -0.004375 -0.004281 -0.005368 0.008570 0.001841 0.007607 -0.003366 -0.006299 -0.002677 -0.004369 -0.008715 -0.000753 0.001798 0.000265 -0.007578 0.001604 0.002768 0.006991 -0.001758 0.000050 -0.001191 -0.008172 0.003981 -0.006928 -0.003497 0.001059 -0.000987 -0.002710 -0.002323 0.002722 -0.007070 -0.009231 0.007513 0.004101 -0.006890 -0.002945 -0.002393 -0.007258 -0.008601 0.007363 -0.006626 0.001902 0.003847 -0.009380 0.007144 -0.008240 
brown 0.008928 -0.009571 -0.002851 -0.006924 0.000625 0.004153 -0.009359 -0.004993 -0.007244 -0.007118 0.000291 -0.006043 -0.005204 -0.004740 -0.006488 -0.009621 -0.009033 0.001841 -0.001877 -0.001042 0.000974 -0.008027 -0.007416 0.003358 0.005599 0.003573 -0.009789 0.005472 -0.000579 0.003028 0.000402 -0.001792 -0.004008 -0.002727 -0.008277 0.001956 0.005631 0.002155 -0.009750 -0.008338 -0.007221 0.002048 0.005771 0.003546 -0.002861 0.004829 0.007801 -0.010172 0.004337 -0.004845 0.001231 0.008505 0.008551 -0.005994 0.007321 0.006115 -0.008090 0.008765 -0.004047 0.005780 0.002463 0.001293 -0.001625 0.009441 0.006126 -0.004721 -0.007392 -0.002895 0.007643 -0.006508 0.005979 -0.006888 -0.004997 -0.008661 -0.001617 0.001519 -0.004263 -0.006205 0.000461 0.007332 -0.007535 0.001376 0.002412 -0.009806 -0.000860 0.009238 0.008200 0.001413 -0.009880 -0.005550 -0.010245 0.008064 0.005761 0.007617 0.008913 0.006535 -0.002529 0.006346 0.002493 0.007702 
over -0.005216 0.000795 -0.000623 -0.005670 0.009751 -0.004633 -0.007927 -0.004137 0.005481 0.002925 0.009844 -0.008787 -0.002122 -0.006540 -0.007524 -0.004269 0.003646 0.006663 0.005663 0.000302 -0.005452 -0.002393 -0.001979 0.003447 -0.007085 -0.005759 0.001763 0.007364 -0.004132 0.002787 -0.002674 -0.009724 0.009695 -0.003932 0.009939 0.007126 0.008641 -0.005021 0.005997 -0.002542 -0.007644 -0.007510 -0.005924 -0.009996 0.003944 0.000422 0.005187 -0.006219 0.005636 0.006339 0.003746 0.009984 -0.003747 0.006050 0.003519 -0.001122 0.002771 0.006938 0.003427 0.002457 0.008812 -0.000869 0.001037 -0.000149 -0.007818 0.009836 0.007277 0.001149 0.000881 0.008175 0.002840 -0.002922 0.004724 -0.009338 -0.001679 -0.009288 -0.007071 -0.002482 -0.003317 -0.005416 -0.003210 -0.002771 0.004884 0.009682 -0.001144 -0.003847 0.006199 0.007756 0.008479 -0.002708 0.004546 0.008062 -0.003103 0.009309 -0.002785 0.002042 -0.000762 -0.005953 0.009993 0.009809 
dog 0.009613 -0.006685 -0.000693 0.004551 0.007372 -0.003133 -0.001577 0.009081 -0.004490 -0.001595 0.007222 -0.000225 0.001507 -0.009719 0.008154 -0.003086 0.006376 -0.007171 -0.006235 0.003065 0.000741 -0.003352 0.001884 -0.009937 0.007800 0.007725 -0.001508 -0.004160 0.009926 -0.008223 0.002709 -0.006406 0.001605 -0.001677 -0.007119 -0.008416 -0.002818 -0.006077 0.000276 0.000977 -0.005932 0.002887 -0.007134 -0.002310 -0.003441 -0.000336 0.002391 -0.004045 0.006825 0.009656 -0.000346 -0.005803 -0.001903 -0.009290 -0.000737 -0.005706 0.008192 0.000505 0.006643 -0.004391 -0.005763 -0.002917 0.002914 -0.008094 -0.006633 0.008362 -0.006753 0.003994 0.002016 -0.008484 -0.005463 0.003648 -0.005558 -0.000738 -0.007621 -0.003575 0.006412 -0.006627 -0.006831 0.004843 0.008596 0.005684 -0.009496 0.003933 0.008220 0.005110 -0.001061 -0.006979 0.004925 0.001090 0.000501 -0.004818 0.000240 -0.006951 -0.009732 0.002184 0.006217 -0.006762 -0.000786 -0.006085 
fox 0.009382 -0.001818 0.007118 -0.002512 0.009418 -0.000270 0.008129 -0.004940 0.002174 -0.001055 -0.002711 0.006261 -0.001316 -0.005113 0.008402 -0.006451 0.005331 -0.002178 0.008183 -0.000749 0.007830 -0.008970 0.005382 0.000956 -0.001020 -0.002307 0.004050 -0.006383 0.006919 0.003889 0.007256 0.008369 0.003292 0.006285 0.002071 0.000657 0.000241 0.001542 -0.003689 0.003378 -0.008114 -0.005255 0.006717 0.003859 -0.007250 -0.010067 0.009410 -0.002447 -0.003717 -0.004990 -0.001833 -0.009360 0.001767 -0.000744 -0.001221 0.001199 -0.006752 0.004821 0.005800 0.001564 -0.008823 0.009837 -0.004144 -0.006385 0.006095 -0.007357 0.000248 0.004824 0.002083 -0.009279 0.000247 -0.000948 -0.005295 -0.000409 -0.006333 0.002995 -0.004660 0.002075 0.004582 0.008027 -0.007103 0.008460 -0.007707 0.003739 0.009023 -0.006976 0.005459 0.005605 -0.007881 0.006475 -0.006780 0.007875 -0.003309 0.008792 0.008658 0.006280 0.003236 -0.003623 0.009544 0.002205 
jumps 0.001027 -0.000147 0.004305 -0.001140 -0.000655 0.004526 -0.000743 0.002710 -0.000580 0.006601 0.005406 0.004751 0.002635 -0.009768 0.007083 0.001933 -0.006819 -0.000691 -0.005395 0.004385 0.002100 0.009047 -0.008700 0.002336 -0.002812 0.000919 -0.009415 -0.008603 -0.001987 -0.004879 -0.007200 0.005204 0.007239 -0.004145 -0.008088 -0.003682 -0.007109 -0.005551 0.003420 -0.000324 0.005271 -0.004339 -0.004606 -0.004898 0.004308 0.003315 0.001908 -0.003746 -0.001120 0.008638 0.002445 -0.007602 0.009800 0.007311 0.008980 -0.003278 -0.001747 0.009619 -0.002111 0.007785 0.001109 -0.000289 -0.009307 -0.000502 -0.007338 -0.008531 -0.004510 0.002321 -0.003759 0.004822 0.001654 -0.006640 -0.008757 -0.002272 0.002119 0.001315 -0.000359 -0.005197 -0.002813 0.006325 -0.004756 -0.005229 0.005206 0.003061 0.004467 0.009915 -0.000956 -0.009130 0.005042 -0.006443 0.003561 0.004210 0.006573 0.006900 -0.008151 -0.009377 -0.006673 -0.006072 0.008429 -0.001096 
quick -0.008521 0.008926 -0.000778 -0.006193 0.006161 -0.003618 -0.003917 0.002208 0.001219 -0.003685 -0.008290 0.002181 -0.003684 -0.007615 0.000921 -0.005540 0.003807 -0.007697 -0.008808 0.008845 -0.002212 0.002893 0.006370 0.005321 -0.008574 -0.008828 -0.003743 0.008687 -0.008633 0.001224 0.006882 0.005807 0.004219 0.004263 -0.005710 -0.001818 -0.005336 -0.007340 0.005943 0.000570 0.005101 0.000723 -0.008468 -0.000499 0.004811 -0.006176 -0.006380 -0.001840 0.002862 -0.006204 0.007848 -0.001638 -0.009269 0.008423 0.009374 0.007244 -0.006779 -0.004764 0.007347 0.004121 0.005777 0.008840 -0.008563 0.002441 0.005027 -0.007857 -0.004345 0.000752 -0.000326 -0.002137 0.006374 0.005138 -0.003271 0.002361 0.002314 -0.006639 0.008124 0.005467 -0.006791 -0.002410 -0.007790 -0.008893 0.007117 0.007093 0.000727 0.006114 0.000003 0.000923 0.003532 0.001609 0.002141 -0.002276 0.001238 -0.007196 -0.000863 0.004187 0.007067 -0.001751 -0.001264 0.001140 
the 0.006421 0.005560 -0.006594 0.002340 0.005256 0.002043 0.004635 0.008021 0.007736 -0.005854 -0.000965 0.002614 0.001711 -0.004843 -0.006684 -0.003242 0.002278 -0.009328 0.004681 0.006100 0.002641 -0.002658 0.001427 0.007664 -0.001554 -0.004104 -0.005592 -0.005619 0.009872 -0.001544 0.006627 0.003806 -0.002869 -0.001339 0.006775 -0.007912 -0.004487 -0.005760 0.000605 -0.009215 0.006507 -0.003264 0.001978 -0.009313 -0.001312 -0.007588 0.008773 -0.008661 -0.009036 -0.008993 -0.003573 0.002315 0.001411 0.006325 -0.007392 -0.006976 -0.000096 0.004732 -0.006379 0.009229 -0.007555 0.000067 0.004595 0.002149 -0.006671 -0.004731 0.008956 -0.002908 -0.007717 0.003684 0.006768 -0.004570 -0.004066 -0.008939 0.006430 0.001273 0.007622 -0.007974 -0.002696 -0.005633 0.009547 -0.006244 0.009094 0.002377 0.002487 0.008208 -0.001544 -0.005042 -0.001437 -0.000789 0.008515 0.009001 -0.008011 -0.005503 -0.003513 0.003162 0.004419 -0.004758 0.000730 0.001917 
