8 100
over -0.002314 -0.005732 -0.003518 0.000085 -0.008107 -0.007055 0.008674 0.007392 0.005260 0.010166 -0.005432 -0.000785 0.000717 -0.009131 0.005154 -0.005765 0.007331 -0.005336 -0.003666 0.001354 -0.004407 0.008132 0.009233 0.008236 0.005808 -0.007945 0.002108 0.000457 -0.001783 -0.006760 -0.001407 -0.003250 0.001662 -0.004116 -0.008629 0.002234 -0.009445 -0.002168 0.009038 0.006394 0.006445 -0.008611 0.006304 -0.002809 0.009702 0.000020 0.005133 0.000197 -0.003594 0.002762 -0.002672 0.002271 0.009119 -0.000435 -0.004657 -0.007544 -0.008819 0.006129 -0.007447 -0.009322 0.001385 -0.000669 0.004357 -0.002735 0.007863 -0.003750 -0.002434 -0.005679 0.008668 0.005636 0.003282 -0.006360 0.009034 -0.009628 0.000568 0.009561 0.004052 -0.006453 -0.003126 0.009229 -0.007019 -0.008823 0.007093 0.002351 0.001335 0.000141 -0.008182 -0.008893 0.007164 0.008239 0.006964 -0.006218 -0.002147 -0.004725 -0.006368 -0.005564 -0.007871 0.004781 0.004448 -0.006971 
fox -0.004113 -0.001719 -0.004731 -0.004157 -0.006790 -0.002595 0.002436 0.001609 0.003103 0.002617 -0.008413 -0.008553 0.002687 0.008770 0.003349 -0.004070 0.009118 -0.004232 -0.009188 0.004481 -0.008805 -0.008808 -0.009893 -0.005837 -0.007206 -0.006121 -0.006438 0.006837 0.007398 -0.009830 0.001270 -0.008042 0.002496 -0.007646 -0.004753 0.005386 0.000513 -0.004710 -0.009721 -0.009633 -0.006385 0.009605 -0.007378 -0.001993 0.004528 0.003362 -0.008662 0.000138 -0.000655 -0.001953 0.000224 0.006639 -0.008284 -0.003263 -0.003287 -0.006136 0.002687 0.004617 -0.001701 0.000441 -0.007119 -0.001181 0.004388 -0.005104 -0.007052 -0.009299 0.006220 -0.004946 0.004945 -0.004655 -0.002471 0.009533 0.003338 -0.002007 -0.005907 -0.007654 0.005667 0.000190 0.001241 0.000698 -0.002641 -0.002012 0.009199 -0.004942 -0.000146 0.005787 -0.007018 -0.008780 0.002479 -0.001102 0.003497 0.009558 0.006577 -0.006827 0.000107 0.006039 0.001739 -0.009849 0.003138 -0.002817 
the 0.005564 -0.006999 -0.001332 0.009653 -0.002372 0.001878 0.007594 0.002796 -0.007420 0.004075 -0.009087 0.002349 0.001695 0.003012 0.002204 0.008379 0.003871 0.008118 0.008346 0.008636 0.000718 0.006682 0.003999 0.003521 0.003363 -0.004624 0.001154 0.000852 0.009584 0.004720 0.008518 -0.008961 -0.002065 -0.001314 -0.007210 0.004659 -0.008407 0.005321 0.001176 0.007085 -0.008816 -0.002327 -0.008392 -0.008424 0.005116 -0.005699 -0.008900 0.000258 0.005398 0.009686 -0.000332 -0.001764 -0.007211 0.003518 0.006932 -0.005030 0.003856 -0.009144 0.001848 -0.006953 -0.004719 -0.001314 -0.000796 -0.008576 -0.006454 0.000043 -0.005256 0.000730 -0.001486 -0.006072 -0.009239 -0.001028 -0.003559 -0.006567 -0.005918 0.009664 -0.000541 0.008258 0.001627 0.008809 -0.004260 0.002302 0.002168 0.009056 -0.000342 -0.008372 0.007111 0.005250 0.000589 -0.000637 0.000816 0.009150 0.000701 0.005476 -0.004269 0.007710 0.001890 -0.005863 0.000778 0.005311 
dog 0.003554 0.001460 -0.001665 0.001287 -0.009430 -0.003275 -0.003767 0.009839 0.002402 0.000172 0.008795 -0.005883 0.008604 -0.002891 -0.003078 0.005408 0.004788 -0.000856 0.006963 -0.006481 -0.005127 0.001682 -0.005230 0.002030 0.003687 -0.000405 -0.009773 -0.005099 0.000774 -0.002190 -0.007359 0.004087 0.003484 0.003916 -0.001497 0.009284 0.001202 0.000136 0.008916 0.007171 0.000939 0.001641 -0.007508 0.005025 0.008289 0.004303 0.008346 0.004222 0.000813 0.001877 -0.006258 -0.009626 0.003423 0.000091 0.004657 0.000864 0.007467 0.009498 -0.000464 0.003906 -0.002657 -0.007886 -0.008586 -0.001180 0.005814 0.001840 0.000016 -0.009890 0.005023 0.009114 -0.001115 -0.000363 0.006328 0.001030 0.003751 0.007664 -0.007141 0.009801 0.006672 0.005150 -0.009168 -0.007740 0.007586 0.004587 0.005561 -0.001907 0.002822 -0.003323 -0.007520 0.009738 -0.009201 0.009564 -0.002693 -0.008071 0.000124 -0.006216 0.003953 0.004981 0.002951 -0.001357 
quick 0.002044 -0.009037 -0.009199 0.007932 -0.000327 0.001393 -0.009911 0.006673 -0.005674 0.009021 -0.004489 -0.000834 -0.005322 0.006554 0.004474 -0.004826 -0.000373 -0.006533 -0.006260 -0.004893 0.004614 -0.001826 0.009779 -0.004524 -0.004185 -0.003955 0.003641 -0.004969 -0.000688 0.007484 -0.004027 0.007860 -0.002599 0.005659 0.005235 -0.009571 -0.007166 -0.008635 0.004966 0.000863 -0.006290 0.000589 -0.007321 -0.007323 0.002192 -0.009824 0.008034 0.009159 0.002890 -0.006935 -0.007144 -0.006684 0.006824 0.009628 0.004372 -0.005803 -0.009568 0.008124 0.002842 -0.002675 0.008930 0.007553 -0.000059 0.009208 0.001328 -0.008765 0.009833 -0.006986 -0.009943 -0.002575 0.007901 0.004438 0.003784 -0.004512 -0.005156 0.000118 0.004507 0.004488 0.003345 0.009392 0.006380 -0.008545 -0.007318 0.005549 0.003597 0.004313 -0.002730 0.009773 -0.005485 0.004454 0.007678 0.001782 0.000824 0.007253 -0.003450 0.001363 0.009450 0.001399 0.007469 -0.007083 
jumps -0.008299 -0.006182 0.003883 0.009769 0.008270 0.000963 0.000204 0.006023 -0.009587 0.000211 -0.003525 0.006918 0.001162 -0.009419 0.001501 -0.007485 -0.005921 0.009403 -0.006707 0.006084 0.002842 -0.007838 0.005031 -0.003633 -0.001764 -0.008428 0.006440 0.007307 -0.000932 -0.000837 -0.007287 -0.003292 -0.007389 0.007015 0.007946 0.007750 -0.008670 -0.000801 -0.003390 0.004778 -0.006849 -0.004759 -0.008935 0.008862 0.008227 -0.008508 0.002959 -0.006561 -0.004270 0.008186 0.002150 -0.006347 0.009412 -0.007115 0.002016 -0.009882 -0.007692 0.009816 -0.008033 -0.007203 -0.004476 -0.008998 0.003195 -0.004131 -0.008642 -0.008983 -0.008171 0.003647 -0.001388 -0.005902 0.000445 0.003985 0.007989 -0.003168 0.008518 -0.003569 0.006174 -0.007785 0.009882 0.009036 -0.004432 0.003190 -0.000863 -0.009682 0.004752 0.003103 0.003300 -0.004045 0.008950 -0.009161 -0.008266 0.000500 -0.007549 -0.007780 -0.006555 0.002029 0.000851 -0.002690 -0.004561 0.000103 
brown -0.006524 -0.000905 -0.001744 0.008690 -0.001495 0.004480 0.009557 -0.006711 0.001571 0.005741 -0.005681 -0.007021 0.006560 0.007596 0.000860 0.003323 0.008039 0.002542 0.000022 0.001124 0.005471 -0.004365 -0.005103 0.000110 0.003223 -0.004057 0.008908 -0.008633 -0.004730 -0.007906 -0.000236 0.008747 0.005554 0.006557 0.002119 0.000560 0.000017 0.009643 -0.001098 0.008674 0.002042 -0.009895 -0.000155 -0.000251 -0.009881 0.007154 0.008178 -0.008095 0.005921 0.006050 0.007631 0.005235 0.002255 0.007061 0.005037 0.005126 -0.000985 0.005131 0.008479 0.009181 0.009196 0.009651 -0.004259 0.003480 -0.001071 0.002623 -0.007442 -0.003334 0.001390 0.007809 0.003840 0.009676 -0.005912 -0.002343 -0.000454 -0.007830 0.001217 -0.000811 -0.000586 -0.009151 0.005712 -0.003472 0.007616 0.001046 0.006734 0.004687 0.005050 -0.004020 -0.009650 -0.008721 0.003651 0.003526 0.005278 0.000338 0.002368 -0.001173 0.004917 -0.008169 -0.004816 -0.007186 
lazy 0.007079 0.003027 0.008524 -0.003661 -0.004504 0.002377 0.002993 -0.009565 0.008848 0.006008 -0.002399 0.009997 -0.001374 -0.003492 -0.007943 0.007329 -0.006423 -0.006256 0.008212 -0.006395 -0.001335 -0.004872 -0.002485 0.004601 -0.008094 0.007010 0.004432 -0.000649 0.006656 -0.009365 0.009044 0.008077 0.002416 0.008016 -0.007092 -0.005797 0.007257 -0.005920 0.006060 0.008630 0.000332 -0.006323 0.005521 -0.006966 -0.002723 0.005602 0.005463 -0.001779 -0.004939 -0.001616 -0.000875 0.008897 -0.009632 0.009225 -0.008229 0.009518 0.008320 -0.005517 -0.002723 -0.002669 0.003288 -0.007870 0.008707 0.000790 -0.002758 -0.007780 -0.004894 -0.003017 -0.005974 0.005411 0.004569 0.006907 0.008329 0.009926 0.005310 -0.006444 -0.007141 -0.006746 -0.006954 -0.006003 0.008445 0.005664 0.000609 0.008368 -0.005719 0.005723 0.003210 0.004970 -0.002682 0.009163 -0.006341 0.009837 -0.009447 0.001188 -0.004917 0.007527 -0.003310 -0.007672 -0.008944 -0.006207 
